<?xml version="1.0"?>
<opencv_storage>
<stage4>
  <maxWeakCount>5</maxWeakCount>
  <stageThreshold>-4.1450831294059753e-01</stageThreshold>
  <weakClassifiers>
    <_>
      <internalNodes>
        0 -1 741810 5.1519172266125679e-03</internalNodes>
      <leafValues>
        -5.2380955219268799e-01 6.0714286565780640e-01</leafValues></_>
    <_>
      <internalNodes>
        0 -1 272003 -1.7689213156700134e-02</internalNodes>
      <leafValues>
        9.6486818790435791e-01 -2.8330153226852417e-01</leafValues></_>
    <_>
      <internalNodes>
        0 -1 1982331 -9.6847536042332649e-03</internalNodes>
      <leafValues>
        -8.3837997913360596e-01 4.1699934005737305e-01</leafValues></_>
    <_>
      <internalNodes>
        0 -1 1383559 -2.3812871426343918e-02</internalNodes>
      <leafValues>
        7.6367944478988647e-01 -4.3879717588424683e-01</leafValues></_>
    <_>
      <internalNodes>
        0 -1 177594 -8.0546684330329299e-04</internalNodes>
      <leafValues>
        -8.3376914262771606e-01 5.2551501989364624e-01</leafValues></_></weakClassifiers></stage4>
</opencv_storage>
