<?xml version="1.0"?>
<opencv_storage>
<stage16>
  <maxWeakCount>5</maxWeakCount>
  <stageThreshold>-1.7389139160513878e-02</stageThreshold>
  <weakClassifiers>
    <_>
      <internalNodes>
        0 -1 979147 -1.6096176579594612e-02</internalNodes>
      <leafValues>
        -1. 5.0375938415527344e-01</leafValues></_>
    <_>
      <internalNodes>
        0 -1 126837 -2.7515729889273643e-03</internalNodes>
      <leafValues>
        -4.2934936285018921e-01 8.3515673875808716e-01</leafValues></_>
    <_>
      <internalNodes>
        0 -1 1642272 1.2081493623554707e-03</internalNodes>
      <leafValues>
        6.8660891056060791e-01 -4.9754989147186279e-01</leafValues></_>
    <_>
      <internalNodes>
        0 -1 1317665 -1.9404133781790733e-03</internalNodes>
      <leafValues>
        1. -3.4105449914932251e-01</leafValues></_>
    <_>
      <internalNodes>
        0 -1 148854 3.5646319156512618e-04</internalNodes>
      <leafValues>
        -4.3735358119010925e-01 7.5266218185424805e-01</leafValues></_></weakClassifiers></stage16>
</opencv_storage>
