<?xml version="1.0"?>
<opencv_storage>
<stage13>
  <maxWeakCount>6</maxWeakCount>
  <stageThreshold>3.6297729611396790e-01</stageThreshold>
  <weakClassifiers>
    <_>
      <internalNodes>
        0 -1 1960 -2.5952362921088934e-03</internalNodes>
      <leafValues>
        -5.2173912525177002e-01 6.4814811944961548e-01</leafValues></_>
    <_>
      <internalNodes>
        0 -1 1880620 8.3073899149894714e-03</internalNodes>
      <leafValues>
        4.5892357826232910e-01 -7.3463004827499390e-01</leafValues></_>
    <_>
      <internalNodes>
        0 -1 1197197 1.5967708081007004e-02</internalNodes>
      <leafValues>
        6.4656817913055420e-01 -5.9092617034912109e-01</leafValues></_>
    <_>
      <internalNodes>
        0 -1 1133320 -2.5319983251392841e-04</internalNodes>
      <leafValues>
        6.8616491556167603e-01 -5.3091216087341309e-01</leafValues></_>
    <_>
      <internalNodes>
        0 -1 614643 1.5081283636391163e-03</internalNodes>
      <leafValues>
        -4.7804880142211914e-01 7.8367269039154053e-01</leafValues></_>
    <_>
      <internalNodes>
        0 -1 443327 -1.8685765098780394e-03</internalNodes>
      <leafValues>
        8.7057787179946899e-01 -3.6128437519073486e-01</leafValues></_></weakClassifiers></stage13>
</opencv_storage>
